Language model created by QuickLM on Sat Dec 15 13:21:48 EST 2018
Copyright (c) 1996-2010 Carnegie Mellon University and Alexander I. Rudnicky

The model is in standard ARPA format, designed by Doug Paul while he was at MITRE.

The code that was used to produce this language model is available in Open Source.
Please visit http://www.speech.cs.cmu.edu/tools/ for more information

The (fixed) discount mass is 0.5. The backoffs are computed using the ratio method.
This model based on a corpus of 3 sentences and 8 words

\data\
ngram 1=8
ngram 2=9
ngram 3=6

\1-grams:
-0.9031 </s> -0.3010
-0.9031 <s> -0.2430
-1.3802 MOVE -0.2430
-1.3802 NO -0.2825
-1.3802 PLEASE -0.2430
-1.3802 THANK -0.2825
-1.3802 YES -0.2825
-1.3802 YOU -0.2430

\2-grams:
-0.7782 <s> MOVE 0.0000
-0.7782 <s> NO 0.0000
-0.7782 <s> YES 0.0000
-0.3010 MOVE </s> -0.3010
-0.3010 NO THANK 0.0000
-0.3010 PLEASE </s> -0.3010
-0.3010 THANK YOU 0.0000
-0.3010 YES PLEASE 0.0000
-0.3010 YOU </s> -0.3010

\3-grams:
-0.3010 <s> MOVE </s>
-0.3010 <s> NO THANK
-0.3010 <s> YES PLEASE
-0.3010 NO THANK YOU
-0.3010 THANK YOU </s>
-0.3010 YES PLEASE </s>

\end\
